encog,BasicNetwork,java,3.4.0,1,1747508212357
[BASIC]
[BASIC:PARAMS]
[BASIC:NETWORK]
beginTraining=0
connectionLimit=0
contextTargetOffset=0,0,0,0,0
contextTargetSize=0,0,0,0,0
endTraining=4
hasContext=f
inputCount=27
layerCounts=3,17,25,33,28
layerFeedCounts=3,16,24,32,27
layerContextCount=0,0,0,0,0
layerIndex=0,3,20,45,78
output=0,0,0,0,0,0,0,0,0,0,0,0,0,0,0,0,0,0,0,1,0,0,0,0,0,0,0,0,0,0,0,0,0,0,0,0,0,0,0,0,0,0,0,0,1,0,0,0,0,0,0,0,0,0,0,0,0,0,0,0,0,0,0,0,0,0,0,0,0,0,0,0,0,0,0,0,0,1,0,0,0,0,0,0,0,0,0,0,0,0,0,0,0,0,0,0,0,0,0,0,0,0,0,0,0,1
outputCount=3
weightIndex=0,51,451,1243,2139
weights=##0
##double#2139
   -0.8223781776,0.6415496701,0.223548377,0.940693859,-0.663450038,-0.1910875708,0.6003177457,0.7301460977,-0.4720937044,-0.2724019474,-0.4862454397,-0.2468272797,-0.4487852339,-0.1440538141,-0.1372852073,-0.1258380817,-0.6544989815,-0.4184129003,-0.3852899483,-0.3254808885,1.0180391131,-0.7952350844,-0.3217790492,0.5744984671,0.501468285,-0.6114507237,-0.5096527617,-1.2191598175,-0.4367310115,0.0925927942,-0.4217046833,-0.2236670532,-0.7427089747,-0.0015574959,0.3495782922,0.2617438549,-0.2243422456,-0.2126198055,-0.1726070493,0.1531436145,0.2360929593,-0.0707409273,0.1149212182,-0.4387707479,0.2173963595,-0.5714345317,0.1774040163,-0.1107855319,-0.679111021,-0.4035325422,-0.3469644628,-0.3844738092,-0.253766802,-0.5978748034,-0.0314234077,-0.4272248487,0.9464541215,0.6818882796,1.1675747495,0.5832284396,0.1363912106,0.5763489945,0.2444707974,0.3391415975,-0.8846793461,-0.6999378747,0.7374656708,-0.8712258346,0.6868218714,0.0761039874,-0.5311732648,-0.483587763,-0.1309757565,1.0618710793,-0.6780871101,0.6257340991,0.043594868,-0.7451553562,0.0643058718,-0.0336668465,0.2412275118,-0.9101314909,0.9033391794,0.6119991101,-0.9050217125,-0.7811976285,0.2918611263,-0.7600257493,-0.3889245276,0.9231727617,0.2506519809,0.9205604302,-0.0062969009,-0.4231291563,-0.4377124849,0.3880568688,-0.4953525799,-0.2639857456,0.3129971647,-0.4037349986,-0.0337418965,-0.5603383694,0.8965417143,0.7136333696,0.0576670991,0.1309650114,-0.4938041451,0.6462734308,-0.7395415701,0.912213615,-0.4362391119,-0.3848225086,0.0392386088,-0.7903342541,0.5953055347,-0.3704007456,-0.6101727659,-0.8529352498,-0.9662886084,0.3856307124,0.32636226,-0.0358769475,-0.6320083269,0.1900257356,-0.3997266111,-0.2495005383,0.6511300986,0.8356762483,0.3985909139,-0.4275200802,0.3283995115,0.1565977522,0.8582108511,-1.3415181195,0.2078513862,-0.6815143547,-0.9673231413,0.1154171149,1.1204185583,0.8373877886,0.207278227,-0.1940788333,0.8594029443,0.7056874274,0.5372776602,0.1919703359,-0.6645145417,-1.8358738184,0.8372598821,-0.2433059267,-0.3702859302,0.499884235,0.835836935,-0.7864002384,-0.7558147296,-0.4564782623,0.6706444247,-0.682562006,-0.9299694576,-0.1527266374,0.6725586484,0.5190476406,0.2424814824,-0.4210545938,0.8706839079,-0.9119902145,0.1432597702,-0.5248142196,0.4937410306,-0.1420465518,-0.9687486397,0.721049144,0.255107778,0.0956141076,0.1468587281,0.8630039918,0.1099692637,0.6750580033,-0.9706209027,0.5658230274,-0.0754458002,-0.5450959748,0.6147878141,0.8527056604,0.4389898865,-0.0216308678,0.5400504614,-0.0101342792,-0.555196391,-0.6397119578,-1.0954207833,0.721916193,-0.0210074259,0.2469890261,0.5470151623,0.8240326191,0.4349040436,0.5340527162,0.4018319219,0.9481707609,0.1128001997,-0.3840478975,-0.919176538,-0.3243355761,0.8964292331,0.3523618938,-1.2088445101,-0.1657302058,-1.3232029139,0.8255628868,-0.7536814666,-1.0267227087,0.4762191146,1.0410982312,0.6476054892,1.1289877789,0.2087463764,-0.9816663671,0.2095797732,0.4014855614,-0.5128108908,0.3435939831,-0.8499932709,0.106275345,0.2781016295,0.2072217695,-0.8017247952,-0.1012106125,-0.0860486244,1.1044466409,0.8590591604,-1.0969444798,0.2695186787,-0.0945839725,-0.579630045,-0.7049272148,0.0567133773,0.7677919412,-0.3977204154,0.5464316844,-0.3858000131,0.2649481613,-0.4496133984,1.0434750053,-0.6061737905,-0.8592829131,-0.5943825514,0.1595654594,0.444468639,0.3834006599,0.751224856,-1.0827539702,0.9782694654,-0.0442655693,-0.7759261942,-0.1326292008,0.7375005729,-0.3668207684,0.693171427,0.8346192418,-0.0176251217,0.0740943704,-0.5777240051,-0.1892296716,-0.5599976633,-0.7497544045,0.4179381348,-0.266441921,0.2680111034,0.2967926323,-0.2035607157,-0.7579190032,1.0142716216,0.7132185182,0.2858714884,-0.9857082396,0.1009352785,-0.344666059,0.6512034807,-0.3959034324,-0.342516112,-0.062080728,0.4769312241,-0.6521018191,-0.6291707109,-0.7607857325,0.0869513946,0.9948670685,0.248497471,-0.2674052294,0.923114697,-1.0544543007,-0.0430263809,0.453219865,-0.3827627904,0.4834537195,1.2598949767,0.4191049233,-0.9008002034,-0.1552011574,-0.9498395092,-0.9908172212,-0.13655502,-1.022331488,0.4177796497,0.2057770843,0.0739305442,-0.2348166666,-0.1836860442,0.2032943744,-0.7322244254,-0.071144103,-0.083243386,0.238231188,0.1502770119,-0.9555333489,-0.7831500613,-0.1449099775,0.0417418809,0.201640968,0.1037489493,0.2147474377,-0.3058643327,-0.6299445814,0.2393660258,-0.2299578464,0.5601733371,0.4823612457,0.6124515174,0.39208085,-0.6094898776,-0.6525157077,-0.6739760764,-1.0034284256,0.7247912574,-0.9915994142,0.4402118966,-0.544675928,-0.0209403144,0.489435038,-0.2676561186,-0.6059742178,0.3505838566,-0.1605066132,-0.697266114,-0.6471116936,-0.6660945593,-0.4083742407,-0.1631261945,0.6151965173,-0.671813636,-0.7365086988,-0.1489035241,0.2059340948,0.7106775612,-1.4990986583,0.8103935295,0.5906632921,-0.185550488,0.0770707098,0.9563990606,0.6867430084,0.8879194499,-0.4285142787,0.7546585111,0.38193088,0.4670162539,-0.6326330176,-0.8698667679,-0.7843981106,-0.885787692,-0.6237753906,-0.623646973,0.9201122369,1.1242689231,0.2027435869,0.3839106913,0.1071061128,0.0674676308,0.8654603652,0.932453668,0.6317100105,-0.3752937407,-1.0217391525,0.1140582784,0.5620954615,0.1366597625,0.7616311898,-0.6128143523,0.8536463296,-0.4356919168,0.1095941761,-0.05805506,-0.8876223404,-0.0152155692,-0.569176159,0.9870707503,0.9992354383,0.3347013632,0.6701974958,-0.7101837629,1.2445503376,0.0570154709,0.0753129383,-0.208216394,-1.0137513192,-0.8521965626,-0.8701260582,0.1769052194,0.9910247425,0.7265223551,-0.6981162699,-0.6542195859,-0.617944667,-0.5498709941,0.057132369,-0.763233015,-0.8160391532,-0.4858102795,-0.3557970994,-0.1551734956,0.7427701857,-2.1027125873,-0.5643020606,0.7188994713,-0.0258121695,-0.6926275143,0.2814046319,0.6627881254,0.8981698227,-0.0875270582,-0.60963711,-0.034826091,0.660967748,0.4165269285,0.6912063052,0.3763711771,0.574743334,0.9472442103,-0.2180564159,0.7767384378,0.8974301749,-0.9082876314,0.4887404289,-0.5230520124,0.7258683266,0.5630635427,0.070586253,0.1705692249,-0.2002823485,0.9024275362,-0.0508949364,0.7645736538,-0.0492963123,-1.1676462834,-0.7994186523,-0.4841468016,0.7840297672,-0.0195119369,-0.323888775,-0.2527750513,0.124037616,-0.4013745345,0.6534605019,-0.1980453939,0.4162677191,0.3975804609,0.1650251277,0.4942874878,-0.3942175084,0.7583524434,-0.513677884,-0.3712821323,0.5347774439,0.8244734729,-0.7351613225,0.8096621206,-0.1499497797,0.5741348284,0.8670025534,0.1765734625,-0.4475883601,-0.4792649469,0.5754665318,0.3498587109,0.7143813991,0.5946559302,-0.6834568876,-0.1155989888,0.8051499558,-1.2021231902,0.996531168,0.9268251639,-0.359188465,0.6830099511,-0.2255353203,-0.720779763,-1.5750107519,-0.2336102394,0.7692672361,0.7789584792,-0.7067182142,-0.7897278993,0.5024637528,1.419466014,-0.3870714746,-0.4133599717,-0.786377455,0.2550344006,-0.2704033097,1.1641898263,-0.5380309058,0.8116540177,-0.5995375208,0.5380573224,-0.3971637091,0.0090823568,-0.2153013349,-0.3534234174,0.8042406912,-0.5268485167,-0.7337484599,-0.2000649841,0.2642860741,0.6693988673,-0.4093859217,1.1811292457,1.8870469473,0.4444399754,-0.045311779,3.8660695306,0.9568511031,-0.7250911985,0.5567761092,-0.4467361256,0.3469883973,-0.2806691754,1.2628499707,-0.9074264616,-0.489658921,0.4336319883,-0.1800083466,1.129774863,0.1742622801,-0.7033785296,-0.6012242553,-0.640181942,0.6411366497,-0.89302119,0.0852222092,1.0833688317,-0.8492473415,0.6258277667,0.4193724544,0.1012179888,-0.4458241323,-0.151311761,0.8804092277,-0.8087392894,-0.2000274325,0.7072820032,0.9833241163,-0.9326229205,0.8200108175,0.6796935719,0.7306076492,-0.3835142522,-0.6558140142,0.1322380952,0.7572487042,0.9702600639,0.1570956185,0.8294025599,-0.7763328189,-0.5810992125,0.7178310169,0.1609627901,0.8786245257,-0.7974553831,1.1755966106,-0.1420177523,-0.6337318579,0.0613007016,0.0348852461,-0.8160291356,0.3903199196,-0.459686517,0.8832164819,-0.203735497,0.6103672793,0.9454159587,-0.1834365657,-0.6316370473,-0.7311879367,0.7649871753,0.1247695037,-0.0243656304,-0.4397662111,1.0652534181,-0.7168421371,0.9621307999,-0.3123853962,0.8973706273,0.3884083572,-0.1930882645,0.5255789555,0.343852926,-0.3465428714,-0.71401627,0.325211341,1.1544626518,0.686877902,1.014779351,-0.8300867349,-0.9650058252,0.6852930123,-0.7203523236,-0.1135747176,-0.0125928291,-0.0377010405,0.5556585651,-0.0716724295,1.1270586461,-0.3473410775,-0.6965181975,-0.8656505149,0.8537520123,0.5348137701,-0.5410788377,-1.2151291258,0.1881221395,-1.0100918082,0.438572527,-0.551439362,-0.2569431367,-0.8260153436,0.20132221,0.1129253838,0.9621419475,1.0254693121,0.7035524607,-0.7787339281,0.4055005303,0.5297623282,0.809228156,-0.7520798599,0.0996129103,0.3231599194,0.9481809531,-0.4679862,0.0653916322,-0.5201207114,-0.3711122195,0.1340787205,-0.0507342708,-0.2548982076,-0.0866237366,-0.9651121787,-0.8705507195,0.2890787973,-0.4290983941,-0.3103698671,-0.4379498576,-0.71651793,-0.262692935,-0.6013267938,0.2177451678,-0.7210007691,0.4123548542,-0.9301273203,0.4698001984,-0.3223811807,0.4603188251,-1.6787152053,0.7212253014,0.7500626745,0.0096854764,-0.0784932616,1.0379969094,0.2509639389,-0.6128056188,-0.2385592544,0.5168787433,0.8950728195,0.3010520092,0.4937608038,0.8542092408,-0.846614318,-0.4546207675,-0.6569298638,0.9041612895,1.7636064962,0.3282099758,-0.0105782354,-0.5293378384,-0.3280451143,-0.9749019959,-1.4784812532,0.0652405621,-0.7842817508,0.6543021587,0.6431585487,-0.6612942902,-0.091070002,0.8303735606,0.1141589724,0.1796628889,-0.5105304132,-0.3887238833,0.07229304,-0.2523790204,0.2554707623,-0.5354663722,-0.3074614857,0.4056674797,0.5024361501,1.1398767295,-0.5681858615,-0.2964442526,-0.3337807826,-0.0957968728,-0.0229175394,0.7172864275,-0.9940548129,-0.5193011599,-0.7192261211,1.2001532244,0.1378527377,-0.9041325504,-0.7015173325,0.4436856863,-0.4572921388,-0.5489294977,0.5639351159,0.9904392982,-0.8104833888,0.5593295066,-0.931810935,0.1685590075,-0.7090423604,-0.1944977052,0.6363478138,-0.2349251231,-1.3506975845,-0.6097953959,0.6831182471,0.6707609154,-1.0675523967,0.4118309327,0.2048770749,0.8670361153,1.0174006911,0.0521880234,-1.1266594764,0.9827840822,-0.4094973948,0.5368236649,0.8951807022,0.169546212,0.9022478741,0.3036428482,-0.6759258523,0.0025102642,0.087207239,1.6991140877,-0.7844481819,-0.0906220584,0.3830034703,0.0663021955,0.5953686246,-0.65990626,-0.196819821,-0.0414086497,-0.3246063922,-0.6851605938,0.6632348493,-0.7896480183,0.0158119267,-0.8090454715,0.1421950118,0.5928363447,0.0678322049,1.0180609422,0.9149072566,-0.3691204354,1.2359606385,0.887742935,-0.3000804717,-0.3626634773,0.3471326392,0.7211457556,0.2507612713,-0.4898758614,0.8555306205,-1.2152078745,-0.8743810789,-0.0413208385,0.8403356866,0.4566631985,0.6929335811,-0.7118515858,-0.0647612057,-0.2421555019,-0.4085941611,0.8761223001,-0.375609427,-0.865662901,0.3549458037,0.2578209828,-0.0750152944,-0.4719817893,-0.8065682394,-0.1623775746,0.3004394277,0.963266704,0.9859793167,0.7990650222,-0.16835649,-0.6843106823,-0.9570659546,0.5643647573,-0.0256653099,-0.0937246729,0.8333287248,0.475099396,0.6981421736,-0.0086942656,-0.6408424222,-0.1539095306,0.4423195519,0.7671873231,0.2130220256,-0.3638286437,0.6100111992,-0.6807753302,0.1690412895,0.4357331355,0.3726686738,-0.8033094971,-0.3553074504,0.1150038479,-0.9208211856,0.192472361,0.9622578214,-0.6853130178,0.8405382063,-0.7398687348,0.2323164173,-0.8952144807,-0.6956962134,-1.2455083955,-0.7990449496,-0.1396440332,0.6363620932,-0.0114014255,-0.2225734663,0.5046461401,0.9620170209,0.3495843321,0.2062585327,0.3386395997,0.5759864682,0.481027352,-0.591747388,0.5701719588,0.8963782177,0.0859999521,-0.8465515582,-0.7389778857,-0.5383583381,0.6699031738,0.7656397572,0.432306549,1.2747461785,-0.2735803769,0.3451009048,0.4388082986,-0.3001023356,0.2707494694,0.4912892585,0.5936895542,0.950458533,-0.3511867991,-0.735656942,-0.1517254981,-0.5509277798,-1.0208806174,0.425249124,-0.917759962,0.6586365438,0.3333898534,0.0030777293,-0.6930820294,0.7516587147,0.4351671353,0.466298393,-0.5277387075,-0.7936999144,0.9451490273,-0.261527298,0.5529698547,-0.5987831117,-0.9559949287,0.6179501401,-0.4804146689,0.5971485078,0.1946782753,0.4869868518,0.740046846,0.9779194366,-0.1252241269,0.1280029092,0.4433210656,-0.126932554,0.2581842802,0.3864956432,-0.8948582337,-0.9505889075,0.0858887266,0.7306484664,-0.8118172119,0.8254774283,0.7209580004,-0.6538676286,0.0068920184,-0.7939015103,0.1143382002,0.8283817555,0.5279188126,0.4378750558,0.9069961094,1.006498763,0.3118688944,-0.8229371833,-0.4216048256,-0.7494553442,0.1291491898,0.8650946838,1.0273051065,0.4425622197,-0.3933872572,0.1702779315,-0.3510781645,0.749364777,-0.251203838,0.8899585032,-0.3927627303,-0.5245228819,-0.6489753144,1.2522775507,1.176948579,-0.8845371044,-1.3093140614,-0.3853135079,-0.0374579467,-0.4057767892,1.2772121111,-0.5838788262,-0.122490734,-1.2284312463,0.6632951647,0.0049213153,-0.620971326,0.7029954814,0.5832302595,-0.4386477103,-0.9510665019,0.4069722134,0.8389440242,0.2423871435,1.4817354897,-1.041695103,-1.966394358,-0.6862428278,0.3756146062,-0.6813567195,-0.2974006102,-0.1841431547,0.2356080711,-1.1525596973,-0.0340633267,-0.4466154888,0.1273938486,-0.1111201186,-0.8509325911,-0.856469514,0.5815153291,0.1486785182,0.2295168574,-0.0974572922,-0.5839545214,0.3972189228,0.3010446942,0.3386556129,0.2891738786,0.9297437336,-0.6315679694,0.5958828814,0.0857620149,-5.2809984677,-0.3758212315,-0.6758310165,0.2705937385,-0.6142208383,-0.5900676291,-0.629411541,-0.1171957486,-0.464514276,0.3595421623,-0.6523376707,0.6589525501,-0.0666695417,-0.4355447484,0.3923512271,0.2572971391,0.4815718508,-0.3708618824,-0.4259290507,-0.5415080298,-0.5685721602,0.1502109844,0.6621461072,-0.2512993358,0.3990631776,0.7963803198,0.1177970516,0.0627046338,-0.5057198813,0.921101902,0.2988002064,0.7239591063,-0.246076078,0.1344416749,-0.8211981513,0.5973096472,0.8255995672,-0.481329352,-0.7945728597,-0.8592474404,-0.6154292722,-0.2070854116,0.1545214406,0.8966301778,-0.3606039442,-0.1774768752,-0.3689214783,-0.0914494264,0.2667926561,0.3463222721,-0.1866780064,-1.6655342269,0.6315536453,0.737014397,0.3554232448,0.0202262061,-0.9142576332,0.5475751402,0.6575548526,1.0262063971,-0.8809383666,-0.3060323007,0.6728892957,-0.4944951597,-0.5601356528,1.039038803,-0.1521687645,-0.0313711891,-1.0287803216,-0.1290860734,0.3950936188,0.7179271974,-0.0721760523,-0.6786420948,-0.4417336966,-0.8543358459,0.6410532562,0.4461052986,0.6853375202,-0.5715887837,0.9193495893,0.7848834476,0.5684866351,0.7914810906,0.269041303,-0.4858807487,-0.9976860229,-0.3801416508,-0.5318395765,0.0398922174,-0.5650476505,-0.2873330141,0.6059450151,0.575625272,-0.1504020785,-0.8175164562,-0.0160194484,-0.9389597659,-0.4596859772,-0.6381345327,0.4154047042,0.756130297,0.1355540594,-1.0758651532,-0.0273648813,0.8401307512,0.0760843587,0.3815046654,0.1020664263,0.5186372906,-0.0166465827,-0.1728574752,0.5439394714,-0.4595907197,-0.5113809283,-0.2807603725,-0.6167460507,0.8319745263,0.523652005,0.218205109,-0.7931869919,-0.0950602553,0.3350396084,0.2803988678,-0.4106901464,0.9653643684,-1.0317574506,-0.2088601304,-0.0300999663,0.4443283655,0.8916970413,-0.6132281914,-0.651432946,-0.0724496374,0.4215631471,-1.3913967218,0.6386894352,-0.7863589974,0.5880956336,0.8169563938,0.842065953,-0.4322232569,-0.7269094941,-0.6231206337,-0.8583832601,0.7293901118,0.4899174171,-1.0643891909,0.7019606718,-0.4633004097,-0.3587148614,0.8223612278,-0.7447557145,0.7272171538,-0.0333357839,-0.4906982525,-0.878043537,-0.3023925145,0.7349996106,0.3397591769,-0.1453988004,-0.8910341726,0.3348373484,0.3316869887,0.935259844,-0.153565556,0.2158838312,0.8573554525,-0.628915991,-0.0721294168,-3.7698091102,-0.6542595283,-0.7670180939,-0.7442650216,0.1060384717,0.9800098972,-0.9330955342,-0.8707691869,1.0035659437,0.2339264377,0.5355413059,1.1202144176,0.3220580443,-0.705873071,1.014480187,0.7969142911,0.2254285743,0.7076615954,0.400866986,0.6617776066,-0.8050213216,0.7835860086,0.5508926588,-0.8970221748,0.0575963626,-0.1305049868,0.0272994214,0.8259487154,-0.6676501798,-0.7840362381,0.3003325559,-0.2456393856,-0.2391944069,-0.3958587276,-0.6429380596,-0.9401774299,0.556655723,-0.8480649117,0.65804417,-0.2793217937,0.4379333215,0.5424416563,0.1331869778,-0.617199427,0.9915780413,0.4456921568,-0.8259518731,-0.490561182,0.4728272609,0.8675106301,0.1217257348,0.0085556493,-0.6833922886,-0.9956591562,0.0497814944,0.8242709497,0.7772241727,0.5815053322,-0.7458986879,-0.6854781829,0.0058598276,-0.3110018223,0.0137947322,1.6244417396,0.4317643279,0.8903319655,0.85934988,-1.3511973754,-0.8834568467,-0.6154418635,1.7749157538,-0.4109464186,-0.2921056718,0.1345324117,1.1823107536,-0.2120494858,-0.3370766478,1.0351718932,-0.5129030271,-0.4016752033,1.1428667998,0.6788728282,0.1248364317,0.0122506284,0.4180506219,0.0899550634,0.4308902012,-0.5935706321,0.5045357314,0.0216604204,0.7940348063,0.1858601246,-0.4872596198,-0.6997715517,-0.260341299,0.8124644371,0.6498347284,-0.4532710148,-0.657966484,0.8582027076,-0.1314359014,-0.3631287899,0.5158848697,0.1202824682,-1.1201889093,-0.4212608166,-0.3352556083,-0.8709981869,-0.1103207286,-0.4299137522,-0.6007061525,0.0672889183,-0.5628235205,-0.4160715309,-0.5561457174,0.3972989106,-0.7238832576,-0.9079232769,0.5687613611,-0.4506118219,-0.4386868707,0.5025221656,0.0530191542,-0.9562354785,-0.2270664078,-0.5964786565,-0.447493708,-0.0181249687,0.8515501369,0.5246659376,0.7144639627,-0.4039623049,-0.3706353349,-0.3980003082,-0.2523298004,0.8020888095,-0.3232638522,0.4809447055,0.5141417727,-0.0169518177,0.6832615784,0.9682559814,-0.2671927611,-0.2780431836,0.657600868,0.8450904183,0.8567142983,0.2935851625,0.4902057644,0.3171939745,0.6718713723,0.2610892621,0.6859328684,0.7894560113,-0.3088536147,0.9776364033,-0.4427094133,-0.325166682,0.5995953429,0.3444976433,0.9388543917,0.4659609141,-4.0190418103,0.7267562205,-0.4992847166,0.0544903897,0.5364579531,-0.2723857133,0.7976701321,-1.0385082576,0.440473177,0.4113113352,-0.6495366561,0.3268723386,-0.766790072,0.6188919297,-0.3375645103,-0.1210079693,-0.2142701656,-0.3844366796,-0.5187562467,-0.7069201832,0.2133341102,-0.3951509233,0.2604343996,-0.1362331553,-0.0643664797,0.297418288,0.2796330487,-0.4864327913,-0.7416509918,0.5177835617,0.3246139162,-0.3317022228,0.5042460819,-0.7001687826,0.5442310437,0.0861914937,-0.4014238034,-0.6943674892,-0.164672748,0.7828920932,-0.6741879647,-1.0172923867,0.8937101811,-0.1495298475,0.5362330032,-0.5494159011,-0.6985136279,0.1332590805,0.7202054653,0.5263363398,4.1946383112,-0.3887156943,-0.2886302515,-0.1140528332,-0.6030276688,0.2964769715,0.4254902229,0.7940190359,-0.2260821174,0.4837484384,-0.6748849378,0.179502091,0.0192731109,-0.9415232484,0.2296391394,0.8196478372,0.082720533,0.1648830132,-0.1230830317,0.356793917,0.2284814748,0.9248323213,-0.8748640799,-0.025176875,0.0536325789,-0.0243886844,0.0242556224,0.476685968,-1.9713713485,0.3888135259,0.5209617257,0.8979959325,0.5050007271,0.9387168135,-0.0385477723,0.273991715,-0.7657050472,-0.7225191178,0.5690843634,0.0868518694,0.2385072155,0.6438384192,-0.4669015085,-0.1217087237,-0.833334939,-0.4967840093,0.6893719786,-0.8810284251,0.2384557773,0.4810173064,-0.0332986806,-0.8636954553,0.4589217143,-0.3956457361,0.1209227221,-0.6140827484,0.855219221,0.678652888,-0.6272377194,0.841440415,0.727525315,0.6448507027,0.4111764503,-0.31612931,-0.5677817601,-0.8632853597,0.4859361803,-0.4418570867,0.6978593729,-0.5256789926,-0.7648158787,-1.0168814666,-0.2238133577,-0.4400793135,0.1261015331,-0.6196528491,-0.9165341672,-0.8149910554,-0.1641547319,-0.8551288234,-0.3548134765,-0.3983982089,-0.9447073528,-0.9635106404,0.0018449437,-1.0769313884,0.8268925018,-0.3746962309,-0.263361715,-0.2329838384,-0.5061699529,0.6057932181,-0.1295907728,0.8925389531,-0.2221525675,-0.5336562588,0.7170881208,0.3430025421,0.6314072012,0.3027173983,-0.4598423774,0.2791954289,-0.3966493561,0.3687191605,0.3947263733,0.6357624174,0.8919544535,-1.0747692439,-0.7937135296,-0.1199452011,1.7376047489,0.9178430326,1.6853433621,0.0019398408,-0.7841929619,0.1604982863,-0.9617447762,-0.7189835016,-0.3098770412,-0.8962878095,0.1433015028,-0.5343859381,-0.795149918,-0.6918957443,-0.3235898943,0.5263968555,0.6249885643,-0.0266409932,-1.0354061993,0.3471002757,-0.3415118397,-0.3043050008,-0.5558194194,-0.3035338173,0.9582332539,0.6161033126,0.3391446221,1.0504923755,-0.3886831551,-0.2089224363,-0.7260666212,-0.8324853748,-0.2456536407,-0.5703956317,0.3901168357,-0.6744239107,0.2029794336,-1.1273192819,0.4332831289,0.6535117257,-0.0353061703,-1.1980987776,-0.1710219222,0.5329413268,-0.7566226982,0.3077030477,-0.7059498863,-0.931629454,0.6961904385,-0.5461701461,0.0178984334,-1.1926724041,-0.8733098682,0.5548224909,-0.569671027,0.2242386743,-1.4204957423,-0.2193316827,2.4286579529,0.4292303419,0.1346308952,-0.7003772258,-0.9139463045,0.3719267317,-0.4175245036,-0.5121099172,-0.3360608179,-0.2956285999,-0.7587857103,0.8490633573,-0.0112955357,-0.9197243972,-0.0503148512,-0.2155773583,0.8270813645,-0.9043003561,0.0748852981,0.4884354809,0.4451225823,0.5095365506,-0.7581858403,0.1268730373,-1.0673554219,-0.8533407921,-1.0026464575,-0.0403021575,0.7345027132,0.3877264433,0.7477586608,0.8786403075,0.3660504322,0.0739925494,-0.0896543742,-0.2204249021,0.087423841,0.9606399165,0.3703096218,-0.4191276371,0.5276525881,0.266192427,0.4837172934,0.350751931,-0.2838056362,-0.7224870334,0.21199999,0.6229987971,0.9808226796,-0.8609914862,-0.0780052619,0.390835635,-0.5082084802,0.5231228453,0.5406156247,0.8463441301,-0.9453625958,0.3807007623,-0.1325997454,-0.5967563112,0.6136718745,0.3111768291,0.191402748,1.0219226003,0.3077903786,0.0781024157,-0.1451865524,2.0345584813,-0.9184588859,-0.8958192441,-0.7713133865,0.2764380837,-0.056322789,0.1298426146,0.7301773063,-0.8956750357,0.832373402,0.5119602328,-0.2583115924,0.3725078153,0.3868768141,0.2076749438,0.0078683156,0.5679790744,-3.3518090017,0.0640177833,0.6440709984,0.71314996,0.2342582746,0.1462857992,-0.5968807204,-0.0773707261,0.9081336285,0.1044453151,0.0963207503,0.3788132297,0.145204389,0.5861829788,-0.8450935019,-0.5925229567,-0.3652803087,-0.4405828947,0.4650780693,0.1313969142,0.7682123504,0.2483004572,0.608751392,0.9337148806,0.8422264622,0.303472165,0.0631432486,0.4604588797,-0.3250215234,0.8260832787,-0.9564897366,0.1017105324,0.8933178147,0.586436421,5.5747743462,0.3243276455,-0.1156462725,-1.081565421,-0.9384201834,1.2913806174,-0.0443255824,-0.0167344454,-0.1521870624,-1.1077772013,0.9530061018,0.3340679989,0.2644724835,-0.5914758069,0.5926474189,1.4974740274,-0.1693676386,0.1453032085,-0.4406780849,0.4922754126,1.533110468,0.3520680413,0.307973731,0.685675814,0.2213398387,0.3792326169,-0.46250387,0.8936387793,-0.7158590962,-0.3039710605,0.267258734,1.0824473065,-0.1502517221,-0.3052263737,0.1212981515,-0.337838684,-0.2690152553,1.1622073112,-0.7389978177,0.2754920381,1.0760836266,-0.9086101858,1.422926954,-0.9838620216,-0.1794066996,-0.6924072751,-0.1972963704,0.0372862792,0.320633237,-0.7817133762,2.8547258663,1.2051974482,-0.0168755308,-0.2524826801,-1.114644207,0.4590346752,-0.1877999286,-0.1373785507,0.4841128725,0.738007384,-0.2147333399,0.4262492672,0.112125299,-0.1383679363,-0.1417660808,-0.0985511738,0.5209236682,-0.9016346673,-1.0716780417,0.5083990295,-1.1415843515,-0.1910854612,-0.5931139977,-0.6396660063,0.6741043108,-0.9945221979,-0.1851406002,-0.8471799661,-0.2137897296,-0.3781286583,-0.1128447714,-0.53261396,-0.9546540575,0.8646879477,0.0892199552,0.3638043388,-0.3351540481,0.2774958988,-0.1498256926,-0.2587189976,0.6558860219,-0.5235884699,-0.4379881378,0.5512930408,0.4373904195,0.0377033164,-0.3616079275,-0.8440850318,-0.4385640003,-0.9975092474,-0.3869345753,-0.1464475065,-1.0605384944,-0.3589110509,-1.0924383947,-0.8270479856,0.8744292253,-0.6174639587,-0.8982658464,-0.6538958511,-0.8625986275,-0.6404934554,-0.6354321247,-0.6795898237,-1.0432163357,-0.6209608818,0.7514886352,0.8258131685,-0.5737268819,0.6437642951,-0.6228672757,0.0510184717,-0.2960233702,0.2318883565,-0.1569024383,-0.1108216316,-0.3506217907,-0.7929666022,-0.6033219959,-0.9394435487,0.5035193369,-0.2664400966,-0.1618668338,0.6714240179,0.123492624,0.2169624802,0.4248854656,-0.6941478126,1.0059978045,0.5260490321,-0.2685113141,-0.7150323062,0.1953626557,-0.8099225577,-0.4853286105,0.1655737518,0.5845885401,0.321958056,0.7368787281,-0.4560907252,1.1538376856,-0.8781983724,-0.5849003637,0.3377657318,-0.5548855535,0.8641710954,0.0111783778,0.760556038,0.4740512299,-0.8093661519,0.5999191827,0.595666682,-0.4057470368,0.8983260639,0.3953367939,-0.4755666337,-0.6023076169,-1.0652941735,-0.3058450298,0.5655637973,-0.0167839719,-1.175960979,-0.1135440931,0.290591355,-0.7323646179,0.2108636848,-0.9668762824,-0.4266076349,-0.2884285481,0.2335690046,-0.0230843983,-0.6113758361,0.1362943193,-0.2476802879,-1.2072721993,-1.0840426804,0.2470602344,-0.366481405,0.2527196475,0.6844057681,0.6515664385,0.212272041,-0.658618947,-0.877387724,0.1527116692,-0.9241507306,-0.5102547293,0.1632604338,0.424744515,-0.830225626,-0.0146177226,0.9602607616,0.7515390792,0.9342902706,0.7069280977,-0.2811508804,-0.5978592996,0.242757141,0.9221033433,0.5064959663,-0.6043591029,-0.4272974663,-0.6526303672,0.8471288702,0.5656052656,-0.7025653475,-0.904975772,0.4479561841,0.7546278558,-0.8197428142,-0.1010775755,0.3665700902,-0.3955412248,-0.3270438379,-2.0953921528,-0.3396285666,0.2932737307,0.7283488073,0.7843513292,-0.9811509137,0.5413422113,1.006318927,0.3795809118,0.3366249468,0.1126493569,0.37850334,-0.8407992045,-0.2586763334,0.8454046436,-0.4604477911,0.7507218356,-0.8799086029,-0.3215309261,-0.1810295916,-0.8543989512,-0.7570051251,1.6574739722,0.6083530629,0.4772200932,0.774353802,0.6652511833,-0.548502495,-2.1958663239,0.0410800566,-0.2010435163,-0.3940692455,0.0434658887,-0.7957634555,0.189481227,0.7578377215,-0.0652799266,0.8250751871,-0.186663804,-0.7471131534,-0.7251563384,-1.0459048423,-0.0660362565,0.6068035873,0.5460569891,-0.1314265121,0.3502080287,-0.674143349,-1.1044673861,0.2210779978,0.5852101781,-0.3004295584,-0.6108049488,0.8078596352,-0.6390236311,0.4868467252,1.7513399219,-1.0661341244,0.8360215569,-1.0185403587,0.5763164446,0.9539600653,0.5291630365,0.333955821,0.5667604255,0.3471042033,0.5548587391,0.8491248704,-0.08832941,0.3197656367,-0.9992298264,0.9763733719,-0.2311178333,-0.3721067866,0.5239742041,0.2211661482,0.7733085301,-1.1133568238,-2.2539741704,0.4326707651,0.1878915558,0.2260362292,0.4975243644,-0.4454296328,1.4867552954,-0.1762739128,0.2743655124,-0.5509971252,0.6971176223,0.6912131841,1.0084155412,0.1480200392,-0.402320262,-0.4967035295,0.8074450397,-0.3226980415,-0.6334917244,-0.4712269033,0.2834645912,-0.458109394,0.0033328416,0.1474980252,-0.751340842,0.3960364916,0.9887861979,-0.6327937715,-1.796398208,0.4656449444,0.7822655652,-0.9230297501,-0.0232505396,0.4793978363,0.9867296541,0.6471659276,-0.4975501956,-0.7861786164,0.7821791233,0.9037981625,-0.83325658,-0.0404640649,0.2120942113,-0.3783282023,0.7956330053,0.3160969083,0.4044235662,0.1723945687,-0.8175948448,0.9962588647,0.5825684448,-0.8057955885,0.8950311265,-0.5468020944,-0.0801271123,0.2296266761,-0.5984576471,0.5032476288,0.7397908339,0.6235205675,-0.165215929,-0.6510170562,-0.3892642826,0.8899095955,0.9947065961,0.9469626315,0.6781223219,0.093866446,-0.4375841735,-0.3062645157,-0.5273538538,0.6107208263,0.1491546845,0.8147789455,0.3423018599,0.5638900699,0.5054246798,-0.4461829417,-0.1986968483
   1.0465809725,0.3690005557,-0.5868755011,0.8718424383,-0.0230597379,-0.4333133711,1.0755232431,0.8462390169,-0.5956289237,-0.2019296381,-0.6658770867,1.4417083492,0.6002437516,-0.7531270197,-0.8305592584,0.6739040011,0.7430638917,0.6454453329,-0.4332360347,-0.3147995731,0.7130013822,-0.5612040657,0.0035849499,0.1584076382,-0.1814394293,1.1397550666,-0.390613072,0.3091529262,0.143408493,0.4083763578,-0.0109719411,0.2119315605,-0.0727383261,-2.1841431721,0.3799586935,0.484414801,-0.5907978535,-0.568995874,-0.6530659793,-0.1867074664,-0.3870747001,-0.2485002883,0.0611682314,0.3656560457,0.5398980119,-0.0995663798,-0.0008131169,0.8296113966,-0.0847044767,-0.2206008539,-0.4009691115,0.8797507737,0.2765358188,0.5276737672,0.1100679942,-0.4276779484,0.6175652131,1.1217525071,-0.6270579089,0.6434830025,0.9714454283,-0.64196483,0.2988804006,-0.0462213307,0.2713915365,0.1120435597,0.8202451093,-0.1455497323,-0.457222586,-0.5090643516,-0.8934733876,0.2966513956,-0.9551382322,0.7602435091,0.9759012272,-0.3151144119,-0.1496520626,-0.7446785998,-0.5807482648,-0.0197220494,0.2675512988,-0.2068080993,-0.7235272774,-0.345434104,-0.419980594,0.6474537671,0.7515977793,-0.5568589855,0.1746005649,1.2260276512,0.8513594958
##end
biasActivation=0,1,1,1,1
[BASIC:ACTIVATION]
"org.encog.engine.network.activation.ActivationSoftMax"
"org.encog.engine.network.activation.ActivationTANH"
"org.encog.engine.network.activation.ActivationTANH"
"org.encog.engine.network.activation.ActivationTANH"
"org.encog.engine.network.activation.ActivationLinear"
